svm_type c_svc
kernel_type rbf
gamma 0.8
nr_class 2
total_sv 42
rho 0.405727
label 1 0
nr_sv 19 23
SV
6.455042504702742 1:1 2:-0.65088353 3:0.18110837 4:0.4487954 5:-0.17292835 6:-0.081092684 7:-0.17033899 8:-0.060116795 9:-0.12612606 10:-0.05668938 11:-0.044492555 12:-0.040918615 13:-0.046477388 14:0.013972546 15:0.058687205 16:-0.12321492 17:0.045153381 18:-0.035419407 19:0.015776426 20:0.0048271533 21:0.062636288 22:-0.064237654 23:0.16351257 24:-0.036618103 25:-0.0067588521 26:0.010566484 27:0.025343699 28:0.095675908 29:-0.030323136 30:-0.1079149 31:-0.0089622481 32:-0.054401181 33:-0.04381281 34:0.091077627 35:0.021426104 36:-0.12945661 37:-0.0059028705 38:-0.054559158 39:0.043940927 40:-0.012974687 41:0.000337778 
19.22986417425766 1:1 2:-0.46312651 3:0.17802533 4:-0.32514626 5:0.036272033 6:0.081564763 7:0.092965145 8:0.071033984 9:0.14575198 10:0.0026436508 11:-0.022572399 12:0.085986652 13:-0.21875099 14:0.11427659 15:0.03713386 16:-0.037800575 17:0.19660989 18:-0.037673895 19:-0.057153818 20:-0.13060256 21:0.13187705 22:-0.036147874 23:0.056322466 24:-0.056409225 25:0.072986023 26:-0.041849356 27:-0.075973836 28:0.073157061 29:0.12143879 30:0.14184274 31:0.065660989 32:-0.12474462 33:0.01714724 34:0.13359781 35:-0.020915723 36:-0.092616854 37:-0.05114316 38:-0.020213258 39:-0.085008437 40:-0.050559292 41:0.0088522311 
12.85296130481549 1:1 2:-0.36214567 3:0.07988428 4:-0.47125013 5:0.057017468 6:0.017816777 7:0.0075311983 8:0.059715148 9:0.077419112 10:0.08513296 11:-0.091240204 12:0.014480263 13:-0.0077512621 14:-0.040161592 15:-0.05766345 16:-0.096373109 17:0.03083307 18:0.20318441 19:0.19531273 20:0.079903684 21:0.068322021 22:-0.15347735 23:0.066505591 24:0.026397391 25:-0.036244689 26:0.056858394 27:0.017068676 28:0.023581285 29:-0.028529666 30:0.04091668 31:-0.011800665 32:0.068495778 33:-0.080272018 34:-0.026713414 35:0.051321391 36:-0.013959725 37:0.034772439 38:0.094775628 39:-0.042578501 40:0.050213862 41:-0.016797462 
2.102256606383615 1:1 2:-0.72636131 3:0.33389702 4:0.35767322 5:-0.11311262 6:-0.20031278 7:-0.058374177 8:-0.10752755 9:-0.20363343 10:-0.13954853 11:-0.057099642 12:0.060411493 13:-0.13229175 14:-0.18043459 15:-0.25737617 16:0.44417015 17:0.10580733 18:-0.27181535 19:-0.33559434 20:-0.018987353 21:-0.17019656 22:-0.024387592 23:-0.12776401 24:-0.55153916 25:-0.15354066 26:0.26942838 27:-0.036500515 28:0.12970262 29:0.084594202 30:0.042724374 31:0.12611983 32:0.25087012 33:-0.18543002 34:-0.01652206 35:0.06795598 36:0.081810062 37:-0.06814581 38:0.013870074 39:0.029004129 40:-0.041691722 41:-0.047242799 
1.073836465206469 1:1 2:-0.62331393 3:0.06540286 4:0.13343833 5:-0.27755703 6:0.034073144 7:-0.53639999 8:-0.048069823 9:-0.23514884 10:0.24843829 11:0.11710037 12:-0.36253382 13:0.36478099 14:-0.21160246 15:0.41924271 16:-0.31685568 17:-0.14439063 18:-0.20159126 19:0.15315274 20:-0.26789691 21:0.11889789 22:0.13788446 23:0.045699095 24:-0.28964006 25:-0.13045516 26:-0.35058505 27:-0.10757249 28:-0.025939548 29:0.045458624 30:0.032665057 31:0.1113519 32:-0.045007096 33:-0.013043713 34:0.061399829 35:0.1545119 36:0.083546436 37:0.080086688 38:-0.045900919 39:-0.1245821 40:0.032383084 41:0.042941041 
20 1:1 2:-0.30801338 3:0.12344742 4:-0.59595847 5:0.18718637 6:0.12036067 7:0.11181933 8:0.0029195333 9:0.17268622 10:0.099075337 11:-0.00131206 12:0.066998135 13:-0.10718963 14:0.040944058 15:-0.067163619 16:-0.10923597 17:0.011788835 18:0.11304596 19:0.023541701 20:0.027911758 21:0.051239898 22:-0.034056077 23:0.075362122 24:-0.060645823 25:0.023905501 26:-0.016876117 27:0.067071093 28:-0.05133057 29:-0.11276112 30:0.061838648 31:0.012017001 32:0.0064025925 33:0.045875858 34:0.1048917 35:0.029701692 36:0.0741965 37:-0.085057928 38:0.018794924 39:0.028573144 40:0.030018766 41:-0.072277215 
0.8371095545194398 1:1 2:-0.55586653 3:0.20699089 4:-0.1694101 5:-0.068763189 6:-0.028308388 7:-0.080432368 8:-0.017032376 9:-0.083007915 10:0.17693378 11:-0.061398031 12:-0.088841916 13:0.12650626 14:-0.19923834 15:-0.13338816 16:0.18623829 17:0.10287268 18:0.18501272 19:0.15028394 20:0.0088818583 21:-0.21896999 22:-0.06848797 23:0.075283301 24:-0.057985291 25:-0.068918101 26:-0.00385475 27:0.021114577 28:0.072696519 29:0.18060015 30:0.17380108 31:-0.083611103 32:-0.094334829 33:0.1227094 34:-0.10306085 35:-0.080140037 36:0.088443112 37:-0.059354148 38:-0.030704432 39:0.093686721 40:-0.097671719 41:0.021293442 
0.8778986057367151 1:1 2:-0.62417495 3:0.26450434 4:0.025900264 5:-0.031928521 6:-0.016117166 7:0.041199752 8:0.030106587 9:0.054194849 10:-0.060804111 11:-0.091888168 12:0.10029185 13:-0.16324675 14:0.10564078 15:-0.010283989 16:-0.0088089306 17:0.081285961 18:-0.1064636 19:-0.044329455 20:-0.058831994 21:0.15696313 22:-0.055744847 23:0.12953879 24:0.052394866 25:-0.037393894 26:-0.032959599 27:-0.022956838 28:0.010703863 29:0.10897171 30:0.013652324 31:0.05604878 32:-0.10877818 33:-0.012444389 34:-0.010730655 35:0.043228349 36:-0.09570637 37:-0.0038321752 38:-0.038591191 39:0.057069656 40:-0.048986722 41:0.0079858026 
0.7638310466511781 1:1 2:-0.54199818 3:0.14174402 4:-0.037346261 5:-0.11244989 6:-0.065769083 7:-0.45558312 8:-0.1421896 9:-0.29918445 10:0.12357708 11:0.0037041997 12:-0.17498145 13:0.14459658 14:-0.20856309 15:-0.059759643 16:-0.33101236 17:-0.07033845 18:-0.07465587 19:0.08800764 20:0.15387544 21:-0.078711386 22:0.19722755 23:-0.12617798 24:0.098224406 25:0.044768768 26:-0.11867281 27:-0.056302168 28:0.064045255 29:-0.061309771 30:-0.040052337 31:0.11809121 32:0.054613811 33:0.0091142252 34:0.063297717 35:-0.10087855 36:0.085639989 37:-0.003712516 38:-0.033190057 39:0.065259748 40:0.063708135 41:-0.013908694 
4.492988457488666 1:1 2:-0.30280432 3:-0.31526874 4:1.0304642 5:-0.17376383 6:-0.065600029 7:0.31949814 8:0.1262351 9:0.095126858 10:-0.12255986 11:0.1048387 12:0.19527357 13:0.14161132 14:0.18235416 15:0.20618744 16:0.074393574 17:0.050061496 18:0.092232148 19:0.070051658 20:0.13801629 21:0.11828452 22:0.11501583 23:0.12063428 24:-0.18801261 25:0.0050283987 26:-0.028072736 27:0.070530423 28:-0.089191682 29:0.017235752 30:-0.11295557 31:-0.042909812 32:-0.063672434 33:-0.013022807 34:-0.072083071 35:-0.077047025 36:-0.025749424 37:0.067096849 38:0.044644297 39:-0.082318334 40:0.068253877 41:0.024504709 
5.895220249004118 1:1 2:-0.26060063 3:0.018032869 4:-0.53473301 5:0.081698574 6:0.057920412 7:0.041832794 8:0.090969201 9:0.10992815 10:-0.0025081645 11:-0.13052953 12:0.081673417 13:-0.093506385 14:0.004187484 15:-0.051652913 16:-0.13741815 17:0.022279474 18:0.23506678 19:0.23732702 20:0.039180754 21:0.091888047 22:-0.047633924 23:0.11776804 24:0.040844522 25:-0.15540483 26:0.045179789 27:0.024730214 28:-0.11555643 29:0.030529647 30:0.0069713599 31:-0.11602271 32:0.11319617 33:-0.065427737 34:-0.034115474 35:0.018383498 36:-0.017887821 37:-0.015874531 38:0.031316651 39:-0.028701692 40:-0.04916596 41:0.030674624 
2.429357404951304 1:1 2:-0.65138868 3:0.14816852 4:0.61358682 5:-0.18158212 6:-0.14899834 7:-0.21530417 8:-0.08450605 9:-0.19542566 10:-0.057985007 11:-0.06244778 12:0.016979149 13:0.10172047 14:-0.10256095 15:0.089003771 16:-0.054360264 17:0.005559213 18:-0.0032741864 19:0.023621275 20:-0.065084817 21:0.065413902 22:-0.11030951 23:0.096401799 24:0.059442867 25:-0.018283024 26:0.033020363 27:0.014841572 28:0.065164395 29:-0.031055103 30:-0.13440428 31:0.005127511 32:0.022535965 33:-0.048009371 34:-0.0035117981 35:-0.056575309 36:-0.12887785 37:-0.049648852 38:0.082751407 39:0.045548688 40:-0.12310713 41:-0.015468142 
3.174623308269058 1:1 2:-0.41951242 3:-0.14008973 4:0.95511233 5:-0.18563148 6:-0.12439095 7:0.15661539 8:0.055992505 9:0.045365955 10:-0.097087983 11:0.062530572 12:0.14007348 13:0.030366728 14:0.14231408 15:0.0743327 16:-0.0094437425 17:0.032950269 18:0.10869043 19:0.00055476309 20:-0.062351269 21:-0.021827279 22:-0.087555337 23:0.10611694 24:0.075885563 25:0.061721807 26:-0.0056827234 27:0.029437005 28:-0.002542259 29:-0.090814083 30:-0.086701817 31:-0.017233362 32:-0.0085964265 33:-0.071011684 34:-0.015420714 35:0.00015217476 36:-0.0088722899 37:0.12027476 38:-0.058717106 39:-0.014871165 40:-0.057839895 41:-0.037481176 
1.368510501940078 1:1 2:-0.51658447 3:0.3415816 4:-0.26039619 5:0.28306711 6:0.053292781 7:0.023506664 8:0.065911191 9:0.0065947695 10:0.10809638 11:0.10419201 12:-0.04358336 13:0.17750715 14:-0.2541191 15:0.11959379 16:-0.16134822 17:0.07758886 18:-0.14761816 19:-0.19366111 20:-0.10582247 21:-0.35980585 22:-0.2269249 23:-0.1767314 24:-0.23645753 25:0.20445 26:-0.10288275 27:-0.25759875 28:-0.23278269 29:0.091071646 30:0.05492722 31:-0.079299168 32:-0.039953286 33:-0.045416545 34:-0.10537417 35:-0.059236511 36:-0.073993918 37:-0.013461646 38:-0.0035930376 39:-0.12871923 40:-0.020918503 41:-0.016094388 
5.859144304146679 1:1 2:-0.30953718 3:0.10834866 4:-0.53180019 5:0.31796522 6:0.10821772 7:0.30403299 8:0.083707322 9:0.22915789 10:0.10157682 11:-0.011901328 12:0.11238457 13:-0.072872839 14:0.15684816 15:0.034916166 16:0.020507306 17:0.051423931 18:-0.011387484 19:-0.030543322 20:0.10413268 21:0.24545498 22:0.099010855 23:-0.023664709 24:-0.18084868 25:0.099555587 26:0.021893977 27:0.066664584 28:-0.073618952 29:-0.10265193 30:0.026843263 31:-0.023549346 32:-0.080877605 33:-0.10813383 34:-0.070043364 35:-0.056635931 36:0.084084029 37:0.067298732 38:-0.0080034851 39:0.04688325 40:0.0060032961 41:0.063765998 
20 1:1 2:-0.3889188 3:0.12014745 4:-0.28958961 5:-0.085075356 6:0.055603305 7:-0.18238023 8:0.0030722302 9:-0.027788928 10:0.049369374 11:-0.085882755 12:0.087235186 13:-0.10022693 14:0.063018032 15:-0.10050132 16:-0.23586475 17:0.038314556 18:0.085416425 19:0.15239224 20:-0.0069491632 21:0.12536751 22:-0.032159688 23:-0.11115634 24:-0.11639082 25:0.0068155974 26:0.0085985884 27:-0.11300581 28:-0.035989388 29:0.053943388 30:0.0018712937 31:-0.057430685 32:0.048189201 33:0.057697716 34:-0.051009028 35:-0.063378973 36:0.094200081 37:0.062243283 38:-0.030188224 39:0.052065706 40:-0.056923866 41:-0.065206631 
2.018428761767835 1:1 2:-0.68874661 3:0.27425754 4:0.20611002 5:-0.18767276 6:-0.17137689 7:-0.2993525 8:-0.1082384 9:-0.24578383 10:0.081722165 11:-0.11119381 12:0.04535548 13:0.18736887 14:-0.25627661 15:-0.3418479 16:0.40599734 17:0.016374256 18:0.15202029 19:-0.011744715 20:-0.14648697 21:0.27667011 22:0.035887068 23:-0.08904433 24:0.12466474 25:0.31589704 26:0.24758802 27:-0.31156344 28:-0.050043768 29:0.22899584 30:-0.29027582 31:-0.17102858 32:-0.0305716 33:0.13893298 34:0.18520269 35:0.07246986 36:0.17657416 37:0.044638354 38:0.12598298 39:-0.0048504381 40:0.033769055 41:0.10207708 
0.7727904735974793 1:1 2:-0.23851149 3:0.22264999 4:-0.65538139 5:0.47679139 6:-0.035180609 7:0.15158345 8:0.052499885 9:0.1724777 10:0.048569157 11:0.059004508 12:0.027392865 13:0.12496284 14:-0.030913128 15:0.084673985 16:-0.03412248 17:-0.012332517 18:-0.13075409 19:-0.028055903 20:0.19250851 21:0.0051966447 22:-0.018947834 23:-0.040517886 24:-0.0026912313 25:0.16052605 26:-0.015205647 27:0.099823037 28:-0.0031226804 29:-0.058174571 30:0.085003115 31:0.041091363 32:-0.10875766 33:-0.080591032 34:0.045075237 35:0.02016836 36:0.14344457 37:0.0029419658 38:0.062624104 39:-0.0037152705 40:-0.0068755719 41:0.020749907 
1.348244201553398 1:1 2:-0.77714894 3:0.32254042 4:0.16686112 5:-0.2510816 6:0.042655551 7:-0.461976 8:0.17554251 9:-0.016340937 10:0.022315563 11:0.71551691 12:-1.1367601 13:-0.84450635 14:0.58785406 15:0.24420291 16:0.54438647 17:-0.61879163 18:0.15389015 19:-0.034670787 20:-0.0066287272 21:-0.043664216 22:-0.27522311 23:-0.098822374 24:0.073319111 25:-0.13346124 26:0.0038138411 27:0.0079141332 28:-0.030052098 29:0.060950616 30:-0.054602675 31:0.023776464 32:-0.065660473 33:-0.019706459 34:-0.0024627542 35:-0.049275661 36:0.044465955 37:0.035994118 38:0.019423059 39:-0.022987434 40:0.030306152 41:0.002589421 
-0.5938559220281793 1:1 2:2.2498164 3:0.059183832 4:-0.72646439 5:-1.0936107 6:-1.7318374 7:0.46813933 8:0.20420508 9:0.12670434 10:0.25416046 11:0.56195172 12:0.40903329 13:-0.82679979 14:-0.9060926 15:0.18331647 16:0.0085089734 17:-0.224352 18:-0.17921018 19:0.26599779 20:-0.028018833 21:0.058571121 22:0.066184111 23:-0.11534656 24:-0.00021626353 25:0.0041046522 26:0.010879198 27:0.0083966433 28:0.031650858 29:-0.013668927 30:-0.027982552 31:-0.019165869 32:-0.021694402 33:-0.026020262 34:-0.0016849409 35:-0.020844381 36:-0.032976699 37:0.014876973 38:-0.025670446 39:0.0014463989 40:0.0035688176 41:0.0085943312 
-1.158664535076102 1:1 2:-0.054265684 3:-0.65972269 4:0.99598341 5:0.088080739 6:-0.038365355 7:0.60898625 8:0.35567687 9:0.19540192 10:-0.17068795 11:0.18416814 12:0.18005015 13:0.14951113 14:0.11231202 15:0.37334879 16:0.057307421 17:-0.026086453 18:0.0058680317 19:0.036283319 20:0.45512089 21:0.054222507 22:0.29939615 23:-0.047486119 24:-0.058832293 25:-0.23654083 26:0.030107945 27:-0.097713617 28:-0.29940126 29:0.2333666 30:-0.064462084 31:0.059906146 32:-0.043512845 33:0.071141357 34:-0.020131531 35:0.046006515 36:0.025547324 37:-0.078595643 38:0.013623551 39:-0.048096777 40:0.040367655 41:-0.029739423 
-0.9532677868487627 1:1 2:-0.2214098 3:-0.41921705 4:1.1431295 5:-0.11494292 6:-0.02075899 7:0.4266264 8:0.15190321 9:0.16764849 10:-0.10879736 11:0.03031715 12:0.076288583 13:0.022912719 14:0.10979661 15:0.047691683 16:-0.058713788 17:0.032266126 18:-0.0081759555 19:-0.018611952 20:-0.14258372 21:0.051640401 22:0.067368381 23:-0.0058743157 24:0.075447177 25:0.11649022 26:0.19367336 27:-0.053123188 28:0.059808324 29:-0.083275162 30:-0.10772849 31:-0.029904329 32:-0.096181675 33:0.048953021 34:0.020876803 35:-0.11336589 36:0.069586172 37:0.014465241 38:-0.10637228 39:-0.17256151 40:0.015123086 41:-0.31868462 
-0.5056495374988533 1:1 2:1.0758973 3:-1.6964237 4:0.12795445 5:0.42078763 6:0.16919526 7:-0.066423148 8:-0.38290276 9:-0.031256309 10:0.15589161 11:0.35922296 12:-0.063103056 13:-0.042217616 14:-0.27983985 15:-0.10255377 16:-0.13662361 17:0.0164511 18:0.64452314 19:-0.29129178 20:-0.057937917 21:0.10589126 22:-0.079817021 23:0.09560319 24:-0.15502722 25:0.02152699 26:0.13339661 27:-0.31693663 28:0.10921437 29:-0.25686428 30:0.036672164 31:0.20743262 32:-0.048574643 33:0.080158519 34:-0.2120209 35:-0.13948351 36:-0.070093469 37:0.0070006713 38:-0.0042382907 39:0.03203663 40:0.10621827 41:0.073340505 
-1.624397686957904 1:1 2:-0.21357126 3:0.01157778 4:-0.67448386 5:0.33714135 6:0.19805813 7:0.19101233 8:0.085428264 9:0.21105378 10:0.12800745 11:0.18778911 12:-0.13161667 13:-0.18223032 14:0.19719169 15:0.054832279 16:0.16545781 17:-0.0033958176 18:0.019366659 19:-0.0392165 20:0.13937738 21:0.031178882 22:0.15596595 23:0.0059207844 24:-0.23590147 25:0.16123513 26:-0.069482192 27:0.0017180609 28:0.11918323 29:-0.13709984 30:-0.13890367 31:-0.10725758 32:0.095167549 33:0.029883135 34:0.12012956 35:-0.004499709 36:-0.091322026 37:-0.054118483 38:-0.075746798 39:-0.0078092782 40:-0.050979095 41:0.044493313 
-0.5697861285525659 1:1 2:0.61358619 3:-1.4178926 4:1.253816 5:0.20072305 6:0.50827701 7:1.1512798 8:0.10361697 9:0.22430343 10:0.059582516 11:-0.25756169 12:-0.76353008 13:0.061237094 14:-0.29652024 15:-0.93721248 16:-0.2199874 17:-0.6077625 18:-0.53344863 19:0.22911896 20:-0.1179008 21:0.068887596 22:-0.078833871 23:0.14599278 24:-0.062151872 25:0.012461197 26:-0.01084719 27:0.027315998 28:-0.025939808 29:-0.018207428 30:0.050761382 31:-0.051886277 32:0.0032705093 33:0.026072586 34:0.026986665 35:-0.026264832 36:-0.022693904 37:-0.010313523 38:0.031667708 39:-0.0015909185 40:0.0038032308 41:0.04117204 
-0.4420405742093886 1:1 2:0.45853645 3:-0.17572782 4:-1.0921364 5:-1.2282302 6:0.07283694 7:0.070624835 8:-0.13152106 9:0.19669889 10:0.071541481 11:-0.27774559 12:0.093353402 13:-0.029814547 14:0.44391012 15:-0.34367438 16:-0.074562032 17:0.18800924 18:0.14062687 19:0.26559082 20:-0.25515344 21:-0.18161197 22:-0.20438816 23:-0.12339162 24:-0.19804408 25:0.17164584 26:0.017740661 27:0.33686244 28:-0.14744298 29:0.10562899 30:-0.21391375 31:0.19698632 32:0.025861247 33:0.13665974 34:-0.10778283 35:0.096908987 36:0.023550697 37:0.026169205 38:-0.13695643 39:-0.012036509 40:0.086996033 41:0.039513567 
-0.2712639919717796 1:1 2:0.96267731 3:-1.2593273 4:-0.3885699 5:-0.039746585 6:0.22552194 7:-0.28776521 8:-0.18935339 9:-0.2205241 10:-0.17672951 11:-0.37904591 12:-0.13022722 13:0.044889364 14:0.0024138426 15:0.17707745 16:-0.039751692 17:0.14017106 18:-0.11521767 19:-0.056301096 20:-0.13973893 21:0.0069923054 22:0.10473688 23:-0.44330952 24:-0.012174301 25:-0.0022787694 26:-0.058512435 27:0.21999999 28:0.097612989 29:0.02342197 30:-0.20325095 31:-0.18430307 32:-0.076207265 33:-0.058048226 34:-0.093222389 35:-0.11322584 36:-0.084719672 37:-0.2374775 38:0.18796976 39:-0.060721379 40:0.059451002 41:0.014703305 
-1.327224534088442 1:1 2:-0.20135929 3:-0.20512778 4:1.3457785 5:-0.18171601 6:-0.17544187 7:0.25061649 8:0.060237474 9:0.25696082 10:0.06909832 11:0.042233544 12:0.17007496 13:0.000783772 14:0.15296223 15:0.16481691 16:-0.14958892 17:0.058614285 18:0.085357824 19:0.057143984 20:-0.23501361 21:-0.11685473 22:-0.042783875 23:-0.13660867 24:0.086141499 25:0.067997007 26:-0.13818227 27:0.096887702 28:0.064565567 29:-0.14387092 30:-0.12144192 31:0.30027125 32:0.094241505 33:0.13705116 34:0.0036251923 35:-0.071235037 36:0.084657283 37:0.028074231 38:0.20865318 39:-0.051801083 40:-0.22339438 41:0.084800712 
-0.594542989199587 1:1 2:1.9067869 3:1.1935925 4:0.27078828 5:-1.3675827 6:1.9902138 7:-0.055869464 8:0.95133488 9:-0.25437368 10:-0.1390874 11:0.6519541 12:-0.24025393 13:-0.060472708 14:-0.45662654 15:0.061246888 16:0.045112783 17:0.65449146 18:-0.16888946 19:-0.073669444 20:0.023263697 21:0.049116153 22:-0.014041329 23:0.11882209 24:0.10345907 25:0.012901888 26:0.053128358 27:0.017260045 28:-0.049531448 29:-0.075744927 30:-0.0038354868 31:-0.0016931462 32:0.033661096 33:-0.020320904 34:-0.021217503 35:-0.002653309 36:0.038889341 37:-0.016596212 38:0.01287911 39:0.019413313 40:-0.018689999 41:0.013009263 
-1.604033868671909 1:1 2:-0.13708546 3:-0.32381004 4:1.2229377 5:0.055593604 6:-0.094668442 7:0.33416535 8:0.14707339 9:0.089285383 10:-0.075187613 11:0.057507201 12:0.14118199 13:0.072094548 14:0.20861446 15:0.17736337 16:0.010094586 17:0.067368022 18:0.13957738 19:0.047691374 20:0.023310056 21:-0.046529614 22:0.002487957 23:-0.1183006 24:0.021960008 25:0.09517358 26:-0.042042866 27:-0.045037661 28:0.026301384 29:-0.12670107 30:0.0091688359 31:-0.090379214 32:0.03011089 33:-0.23699611 34:0.0084736112 35:0.1014582 36:0.080579247 37:0.11121156 38:0.0054171152 39:0.058589503 40:-0.092317893 41:0.030728178 
-0.5942680607903545 1:1 2:1.4296773 3:2.4927251 4:0.20089377 5:-0.20374019 6:0.83612748 7:0.036105921 8:-1.5107646 9:1.1523093 10:-1.0929808 11:-0.076513756 12:0.08479634 13:0.058850111 14:-0.27439346 15:0.14029229 16:0.066395344 17:-0.42859255 18:0.16970588 19:0.10247554 20:-0.031712601 21:-0.031491323 22:0.1038613 23:-0.083861163 24:-0.016649554 25:0.012617311 26:-0.01173537 27:-0.039785397 28:0.013266272 29:0.031076917 30:0.012883709 31:0.011792291 32:-0.01635363 33:-0.029956934 34:0.014152266 35:0.0012737989 36:-0.024698993 37:0.022496314 38:-0.0051406929 39:0.004776939 40:-0.0024190596 41:-0.0047271974 
-14.88084569143237 1:1 2:-0.62361995 3:0.2272063 4:0.28869277 5:-0.10226406 6:-0.04401891 7:-0.16246593 8:-0.022443514 9:-0.1724627 10:-0.01041623 11:-0.10468801 12:-0.035913308 13:-0.016912785 14:-0.059704293 15:-0.021668779 16:-0.14164701 17:0.0269694 18:-0.021874452 19:0.022688 20:-0.040465811 21:0.14429984 22:-0.099719492 23:0.027093563 24:-0.13532308 25:0.020105106 26:0.086664688 27:-0.084044402 28:0.020068601 29:0.058098834 30:-0.08655192 31:-0.022554418 32:-0.030229776 33:-0.057071989 34:-0.00026575002 35:-0.0097639444 36:-0.061148708 37:-0.011083369 38:-0.010460451 39:0.14944885 40:-0.025261946 41:-0.0966483 
-4.358871766144532 1:1 2:-0.27046663 3:-0.32298241 4:0.9784787 5:-0.22858513 6:-0.087728074 7:0.19668995 8:0.074143253 9:0.046776392 10:-0.16968504 11:-0.00242894 12:0.18686583 13:0.043243311 14:0.088775111 15:0.097294577 16:0.1270971 17:0.12311839 18:0.12439739 19:0.039257763 20:-0.035985933 21:-0.058384304 22:0.0090238936 23:-0.02361069 24:-0.01184582 25:-0.079855192 26:0.026188988 27:0.060838113 28:0.17772324 29:0.050692426 30:0.11048522 31:-0.13466024 32:-0.08812214 33:0.098045649 34:-0.016380527 35:-0.033794064 36:-0.016186418 37:-0.052046472 38:-0.1055139 39:0.01304757 40:0.035661945 41:0.076542879 
-20 1:1 2:-0.46312651 3:0.17802533 4:-0.32514626 5:0.036272033 6:0.081564763 7:0.092965145 8:0.071033984 9:0.14575198 10:0.0026436508 11:-0.022572399 12:0.085986652 13:-0.21875099 14:0.11427659 15:0.03713386 16:-0.037800575 17:0.19660989 18:-0.037673895 19:-0.057153818 20:-0.13060256 21:0.13187705 22:-0.036147874 23:0.056322466 24:-0.056409225 25:0.072986023 26:-0.041849356 27:-0.075973836 28:0.073157061 29:0.12143879 30:0.14184274 31:0.065660989 32:-0.12474462 33:0.01714724 34:0.13359781 35:-0.020915723 36:-0.092616854 37:-0.05114316 38:-0.020213258 39:-0.085008437 40:-0.050559292 41:0.0088522311 
-0.2739807529013619 1:1 2:0.94058285 3:-1.2301031 4:-0.23165384 5:-0.12332498 6:0.050232752 7:-0.38433234 8:-0.26617558 9:-0.21117033 10:-0.24472823 11:-0.35925844 12:-0.051146999 13:-0.15652369 14:0.069943193 15:0.14540805 16:-0.036515782 17:0.061117292 18:-0.19903272 19:-0.081083941 20:-0.014126807 21:0.013671492 22:0.00063395642 23:0.067479074 24:0.0064930083 25:0.027677996 26:-0.10582559 27:-0.11446263 28:0.026822959 29:-0.021459488 30:0.037996815 31:-0.074911819 32:-0.058488244 33:0.028028546 34:-0.025802292 35:-0.0068982491 36:0.059994563 37:-0.0033641345 38:-0.056318178 39:-0.044311526 40:-0.036961585 41:0.099806163 
-20 1:1 2:-0.30801338 3:0.12344742 4:-0.59595847 5:0.18718637 6:0.12036067 7:0.11181933 8:0.0029195333 9:0.17268622 10:0.099075337 11:-0.00131206 12:0.066998135 13:-0.10718963 14:0.040944058 15:-0.067163619 16:-0.10923597 17:0.011788835 18:0.11304596 19:0.023541701 20:0.027911758 21:0.051239898 22:-0.034056077 23:0.075362122 24:-0.060645823 25:0.023905501 26:-0.016876117 27:0.067071093 28:-0.05133057 29:-0.11276112 30:0.061838648 31:0.012017001 32:0.0064025925 33:0.045875858 34:0.1048917 35:0.029701692 36:0.0741965 37:-0.085057928 38:0.018794924 39:0.028573144 40:0.030018766 41:-0.072277215 
-20 1:1 2:-0.25230114 3:-0.01996142 4:-0.60425296 5:0.12059022 6:0.071237414 7:0.14648752 8:0.087691486 9:0.10504164 10:0.084312025 11:-0.058536723 12:0.032465404 13:-0.0068015799 14:0.0021321898 15:-0.039548537 16:-0.0013898891 17:0.034099508 18:0.19024875 19:0.15946444 20:0.10439778 21:0.068305308 22:-0.10558681 23:0.06653162 24:0.0088676034 25:-0.010335734 26:0.076911232 27:0.043141558 28:-0.015911949 29:-0.015326617 30:-0.0088128236 31:-0.037687837 32:0.050770201 33:-0.082497865 34:-0.089959603 35:0.020808565 36:-0.039504969 37:0.041848841 38:0.064680755 39:-0.027427462 40:0.049428777 41:-0.0023804493 
-0.5852764706686343 1:1 2:1.0172209 3:0.20291028 4:-1.2534362 5:-1.9498706 6:0.1912351 7:0.66589315 8:0.095187956 9:-0.80337416 10:0.15080849 11:-0.061878254 12:0.45897681 13:0.57004773 14:0.60782118 15:-0.087390149 16:-0.09304708 17:-0.74685956 18:0.17161959 19:-0.36124196 20:0.11597292 21:-0.058940174 22:0.032082269 23:0.0024873657 24:0.025741639 25:-0.0070789828 26:-0.031818005 27:-0.14766745 28:0.12078363 29:-0.014475156 30:0.11432412 31:-0.040666528 32:-0.039059519 33:-0.04596399 34:0.057243418 35:0.0083802153 36:-0.021628112 37:-0.012402815 38:0.058854319 39:-0.0020930389 40:-0.013462566 41:-0.0088482327 
-0.593884824266081 1:1 2:1.9827664 3:1.4025745 4:-0.42438088 5:-0.20465776 6:-1.6925166 7:0.49871321 8:-0.066451329 9:0.17602135 10:-0.45390067 11:-0.003389189 12:-1.1565533 13:0.6778148 14:0.32390235 15:-0.091627911 16:-0.13088453 17:0.65144783 18:0.06651566 19:-0.21283654 20:-0.0072888602 21:0.10204432 22:0.023000793 23:0.085780858 24:0.042849889 25:-0.081705477 26:0.0042704098 27:-0.056655932 28:-0.018577996 29:-0.028399375 30:0.0076046592 31:-0.014650278 32:0.042766987 33:0.0087848399 34:-0.0049338881 35:-0.015632619 36:0.019652245 37:-0.025540442 38:0.002991623 39:0.013573536 40:-0.0034712631 41:-0.0012524102 
-0.02624671554421991 1:1 2:0.014440338 3:-0.16473199 4:-0.91170928 5:0.61566323 6:0.18476892 7:0.25403356 8:0.078382682 9:-0.010949094 10:0.34201667 11:0.20708467 12:-0.074973683 13:0.64150767 14:-0.20853029 15:0.49550808 16:0.19994362 17:-0.23614934 18:-0.054961214 19:0.025646502 20:-0.34307019 21:-0.009197211 22:0.021142403 23:0.10558162 24:0.015215686 25:-0.041998332 26:0.17948531 27:0.10242728 28:0.0034578536 29:0.039049313 30:-0.059259503 31:0.016095486 32:0.0092440022 33:0.044736024 34:-0.039128684 35:0.025330222 36:-0.043832673 37:0.046996178 38:-0.031207638 39:0.053106202 40:-0.022563042 41:0.0041228658 
-20 1:1 2:-0.3889188 3:0.12014745 4:-0.28958961 5:-0.085075356 6:0.055603305 7:-0.18238023 8:0.0030722302 9:-0.027788928 10:0.049369374 11:-0.085882755 12:0.087235186 13:-0.10022693 14:0.063018032 15:-0.10050132 16:-0.23586475 17:0.038314556 18:0.085416425 19:0.15239224 20:-0.0069491632 21:0.12536751 22:-0.032159688 23:-0.11115634 24:-0.11639082 25:0.0068155974 26:0.0085985884 27:-0.11300581 28:-0.035989388 29:0.053943388 30:0.0018712937 31:-0.057430685 32:0.048189201 33:0.057697716 34:-0.051009028 35:-0.063378973 36:0.094200081 37:0.062243283 38:-0.030188224 39:0.052065706 40:-0.056923866 41:-0.065206631 
-0.5940060881408946 1:1 2:1.6967197 3:0.1536888 4:0.052970079 5:0.42949313 6:-0.34233871 7:-1.298627 8:1.795919 9:0.90817645 10:-0.61768206 11:-0.39568161 12:0.24048792 13:0.26102926 14:0.038791671 15:-0.25943038 16:-0.057882914 17:-0.47183317 18:0.093441276 19:-0.15435658 20:-0.073037498 21:-0.01901915 22:0.082346857 23:-0.0051456781 24:-0.065208652 25:0.0024880933 26:0.034294868 27:0.0024606765 28:0.010857063 29:-0.0036996402 30:0.0015054054 31:0.055235908 32:0.0061927671 33:0.00011621917 34:0.021372877 35:-0.023776503 36:-0.035971183 37:0.011429434 38:-0.020250404 39:0.0091140893 40:0.011008233 41:0.020902712 
